solver_type L2R_L2LOSS_SVC_DUAL
nr_class 2
label 0 1
nr_feature 42
bias -1
w
-0.080233121724876968 
-0.061459759007241682 
-0.19735999600221976 
0.26753172697668104 
0.13429087359094852 
-0.28082269114301206 
-0.0025310369884054139 
0.052233882550133122 
0.051436856729464804 
0.079394018180422785 
-0.04359465756552533 
0.20913172621236492 
0.060737858897449815 
-0.10530445955039267 
-0.10403907388732572 
0.076162329766080158 
-0.020500418829642597 
0.05302054367396028 
-0.026621047319956445 
0.12635573279236989 
0.09178283736241602 
-0.066331012884923934 
0.12989778683969183 
-0.085546426529561098 
0.12283418257579588 
0.043504251150205925 
0.25296744449660102 
0.10025878323582674 
0.0086773669151344497 
0.10836095359778644 
-0.0010462380604342771 
0.072348400038842645 
-0.10591298455397875 
-0.14996144708766493 
0.0067699651795795623 
-0.18423059644268977 
0.044362183727197753 
0.027895832795525155 
0.073877395405760327 
0.072904631797045025 
-0.036448139595210531 
-0.19093306013282244 
